"","V1","V2","V3","V4","V5","V6","V7","V8","V9","V10","V11","V12","V13"
"sig_1",0.145048232294152,0.00766900568550458,-0.0640287202642556,0.105862330830034,-0.006469668499202,0.0871711194052255,-0.147555492571275,-0.336238253366596,-0.245530853312491,0.200991963943178,-0.034967233092413,0.185676045784281,-0.131617589585672
"sig_2",0.0770961396643819,0.0102269184404596,-0.149885291598978,-0.0166915282018663,0.0400491289113233,0.451186151534765,0.0637429816928144,-0.318343412443272,-0.231936823727548,0.0123394660570393,0.000100712468365023,-0.167071940070203,-0.0574160880619719
"sig_3",-0.0892704291478341,-0.0475787476663554,-0.140142151092319,-0.351156703148402,0.325041110203708,0.0307805878860077,-0.0260134110087504,0.220116556814734,0.0665968140191787,-0.0639854917883617,0.458618240927504,0.153565952151721,0.0899075071892459
"sig_4",-0.0307049727277015,-0.0628156533681729,-0.0296843456951638,-0.190011281570552,0.144444814905324,-0.0591665913881288,-0.081834290815858,0.0779893213912525,-0.21973228994173,0.0610204817533858,-0.0681033935665066,-0.197877250379103,-0.0801071790176767
"sig_5",0.031807859233676,0.0532361636002028,0.0880612052839712,-0.00464016114306588,0.108009279431248,0.217352689054012,-0.102414313838339,0.212511678297969,0.157036314254101,-0.482842473127111,-0.329406762453106,-0.438441284506864,-0.0727927089476191
"sig_6",-0.0725957146199252,0.0615976794244381,-0.136015976272495,0.0581174607156797,-0.27893030245925,0.0199538443377514,0.087452643802818,0.287007619113506,0.145624651030716,0.420024340939303,0.200115274587375,0.187652190230337,0.278771367854746
"sig_7",-0.165056161614825,0.221454826841034,0.0410643620784146,-0.330669780091197,0.140331799260721,0.184859799637431,0.0531558284223227,0.157066823130814,-0.0881727777861809,-0.23944586995493,-0.0919944316607404,-0.122278383876678,0.12635111878104
"sig_8",-0.0695771691275033,0.113710759844523,0.0660216615236727,-0.11079597275032,-0.620912140268401,-0.310059467292713,0.281217098698484,0.146222140660726,0.29913958528252,0.187185843408404,-0.421355913407629,-0.217550331001437,-0.314922436966289
"sig_9",0.0993990024991081,0.367685158723113,0.052271340330551,0.440525721764424,-0.0748942268211163,-0.152225289131498,-0.179623931029142,0.16839226268443,0.121540586672414,0.302045327253612,-0.344474082742043,0.19218783904712,-0.152722517226913
"sig_10",0.0784846750261884,0.484700231765614,-0.347630429561398,0.504450813132506,-0.1470895399093,0.0808822951343114,-0.141992533657282,0.106194392378987,-0.674471247497083,0.0483863405864763,-0.665006864889922,-0.322664206074897,0.504903382367907
"sig_11",0.121204168617045,0.148959353974199,-0.0569182787124176,0.354355458347591,0.32224071896784,0.509207901885373,0.670786495923098,0.0925225565099335,0.173433402973451,0.0509092242963655,0.43675277023056,0.170059304927866,-0.298353198245409
"sig_12",0.0682647597605574,-0.0999572821254891,-0.329631068029912,-0.309138340872836,0.457895246996425,0.53137685843531,-0.189670754339957,0.221086047770429,0.42667423560527,0.0234597453361003,-0.281862880963065,0.102960395909567,-0.535687909798217
"sig_13",0.0116496866642616,0.132576189132884,0.320240998048138,-0.111542058933368,-0.134710341001242,-0.2530351835862,0.0972400818138267,-0.631078463432185,0.0257452018895508,-0.0918203360114064,0.490447791698928,-0.218349399843395,-0.0360605196041191
"sig_14",0.0182030617271034,0.332025093709893,0.248659536613815,-0.354279158570393,-0.216045760600577,-0.372655131504219,-0.327444955302283,-0.0544196291756118,0.638397419907313,-0.169603897646207,0.69343755954724,-0.195708304765604,0.164858013729287
"sig_15",0.00160572426885973,-0.0208486995393638,-0.00913500724713929,0.0474559767669808,-0.0152780955831913,-0.202135849965749,0.0272521378649554,0.0557465326405495,-0.0228084981525998,0.0240202660250266,0.13680086314442,-0.080737708138344,-0.0695910167928191
"sig_16",-0.0534693219880165,-0.172549184652446,0.105685035937033,-0.197308437545142,-0.20594915425245,-0.179409045519856,-0.136254743690848,0.037058247749596,-0.116318032368193,-0.3652405242699,0.579537261093818,0.272135957598224,-0.385110567361503
"sig_17",0.0931552195418256,-0.159988820650048,-0.574674312821125,-0.434508458472063,-0.593497576779302,-0.00955996658390054,0.257774177043158,-0.319554844917487,-1.32121245541533,-0.118214119940547,-0.118642238287845,0.104486318386112,0.735658510637214
"sig_18",0.0328009376806718,0.0326224178370616,0.382972888482456,0.178215230105093,-0.119281846139671,-0.261236476252524,0.409810199789753,0.443145149122837,-0.25350789731074,-0.402797592995574,-0.224906286297063,-0.047211127605798,0.0630126541148521
"sig_19",0.180766178974809,-0.109907829104793,-0.0612345794844292,0.0466891530594489,0.116779687740577,0.0758572491064919,-0.329939011874532,-0.376036776228973,0.480124053311585,0.731726371982233,-0.171839332304979,-0.598106539246162,-0.0689451894967376
"sig_20",-0.116676283695705,-0.0202335965745963,0.0941410574001732,-0.101212118248404,0.561941615230091,-0.48405192369096,0.353855745126486,-0.207951590138382,-0.186274221869009,0.429002030550882,-0.0535264287118421,-0.279060864014369,0.0425443968402964
"sig_21",0.038596777815654,0.0557923188231397,-0.128452069319522,0.0577361348747442,0.204834567092528,0.261828848387477,0.577367731561211,-0.849844410756615,0.33592852695717,-0.262419011365353,-0.457345673039096,0.48668715820281,0.587145124244194
"sig_22",-0.0436982090847455,0.219406008866232,0.423320856821114,-0.111600069095509,0.745775025432829,0.151788580449806,-0.132019074654606,0.111820485280742,0.370155900989744,0.0640393102608473,-0.351289515634614,0.104193455834825,-0.410376747392064
"sig_23",0.175636437142716,0.191981974180338,0.360934832177846,-0.181509393383687,0.193599545748795,0.404279979174544,-0.268606874510992,-0.000218244835682311,-0.883205967689297,-0.461659956072308,0.0687263668592996,0.436681183195465,-1.17303524126304
"sig_24",0.260132691016139,-0.309095264872608,0.129532495959246,-0.0661244032247355,-0.166787223498484,-0.154919618865261,0.599071808177167,0.568189651657567,0.290701932004667,0.606566668402787,-0.0291178111985668,0.650766608489661,-0.991875012975537
"sig_25",0.066208574883031,-0.00921084802673392,-0.325955851780498,0.331077483828724,-0.156078202592643,-0.138532586157429,-0.438101702496279,0.722095217921876,-0.146326325741258,-0.0314511361199949,-0.134778357620198,0.451697259046638,0.0686792752332475
"sig_26",0.00410622972609764,0.263135327752673,0.346269476922035,-0.117692855958509,0.210455097581428,-0.149148583292904,-0.928751221020303,-0.22151503532855,0.850313077768512,0.0152385851708253,0.452698517819674,-0.500750478000144,2.18980236368179
"sig_27",0.0420126761565504,-0.105149996928499,-0.596902995235261,-0.0171637419262611,-0.272093660890767,-0.115387213822044,-0.244205447468025,-0.324651791861179,0.336731684103875,-0.599774588828997,0.401192531049312,-0.608079952954994,-0.344087485770893
"sig_28",0.46024598976068,-0.489860928199263,-0.25331391171801,0.604844929288081,-0.012153354176532,-0.00469665280792106,1.14218929737575,0.23011628936292,-0.982207666380843,0.449113549704307,-0.168259784852829,-0.299658358490097,-0.311751764558721
"sig_29",0.00012211395692462,0.00198089630918681,0.0953380699169719,0.131741400521011,0.256933903250603,0.313911866375444,-0.585299855869014,-0.0691180110280815,0.335718111745609,-0.234890498739371,0.211563614140999,0.392455995794157,0.140931334620867
