"","V1","V2","V3","V4","V5","V6","V7","V8","V9","V10","V11","V12","V13"
"sig_1",-0.415918591115009,-2.07657118822602,8.02682674731341,1.31248743394314,4.01786102484344,3.14905005503824,1.39476982882868,-4.8130100926248,-8.54942763764055,-4.64996968687164,1.1884824227941,-4.93286453351338e-11,3.74370274364155e-11
"sig_2",-1.66918315881804,-2.59512159298544,-5.11955728080139,-0.597675969669009,-0.102959792404573,5.18591967660914,2.1819479288176,-0.536663937029414,8.35477941557386,-2.40210369811531,-2.35781831203775,-2.59121112427391,0.562774675335264
"sig_3",1.47033362485036,3.99375726738865,2.12406740589281,4.65438077763271,-0.913706681870992,1.99991396125497,-3.02799133136313,2.00713719621533,8.66056781708446,6.59725857951439,2.75088619404489,-3.83082102745709,-1.7389095870245
"sig_4",0.211224193987074,-1.49197038354272,-3.00240258106462,-1.99648359005245,-1.1931978516595,-5.78280509546835,-4.51711835699295,1.81022785463422,10.528639517936,4.03731193208401,2.70451434328421,5.87766029314578,1.77487469504545
"sig_5",-0.139373950199637,0.11840777470175,-0.119021903118333,-1.68042551340811,1.79646896626545,-1.29931488570942,-0.346309947435606,3.17760826957967,1.63557948982939,0.685682362560097,-0.261407831818012,0.428918099811224,-0.97434763005485
"sig_6",-2.23980266125508,-3.04881732794814,-3.40478310501908,-3.13333899077066,-6.41262167394964,-4.35240170387526,5.73081911873745,6.05097586132981,-2.1134629133052,0.495024481270253,-15.943321016139,9.74304310337784,-2.11605216816033
"sig_7",1.63964393032012,0.505758813646457,-4.76556222155382,-3.56849619264066,-5.52824546743885,-3.72376745401009,-4.57293385986381,-0.420148982217115,-6.64527116094178,15.1469293836165,0.98093565788269,-7.16627030312968,3.96853137054245
"sig_8",-0.19765224183971,5.37599391413198,1.17878670723303,4.96678687995981,3.59107084047354,-5.64758767960579,-0.433650419755628,1.928904324669,-10.4897410000694,3.70689742663999,10.4894172017251,11.6457827726357,-2.47329186417748
"sig_9",-0.181239346080247,-0.348580889731366,-1.13246991405941,-2.35305783339569,-0.15549698152402,0.181031022879398,-0.447469317568841,-0.825141408999383,-1.44339771098987,-3.01654957912416,0.835453049856397,0.10303130788018,2.23107451020397
"sig_10",-1.44505751646042,-2.63618371066562,-2.2344765671622,3.0111984067011,-0.108423037219596,-3.48966829467388,4.25590740642875,-2.48444197883613,-3.28707674858642,-2.92559674334785,0.194189910263015,-0.798662582193408,2.25892831411374
"sig_11",0.283783297761677,1.0461787913913,-0.222702480516745,1.35684581094022,-0.295916258700047,1.73272259838008,-1.04790289411836,-1.17102396148581,-2.65331739444928,-2.21935872738628,-1.36707424971413,-3.97500324251703,-0.869537496827891
"sig_12",0.579896618614701,0.581367213576367,1.77376844827847,-0.0483940118043427,1.18724792775439,-0.0278465519699304,-0.760380515898174,1.15644548728006,0.416851950775497,1.74706231144675,-2.88535903898961,-0.198494181264093,0.3600007739925
"sig_13",0.872246605440842,-2.04879720453503,-0.467580088154536,-5.61830904422383,0.581021463904829,-1.49591227242023,1.63991532890026,-1.14498325314292,-0.819455134662443,1.90938850820602,0.31491255432076,1.68779833875255,-4.68290610740734
"sig_14",-0.455041203445167,2.04374605325314,2.54624027818621,-2.07870309612785,1.60301314230808,5.54514377136274,6.70834663181153,4.15711678543562,-3.54566655166548,2.88372312551321,2.4304042749976,3.48050749588506,4.6901638579127
"sig_15",0.153774549929051,0.149581908895302,-0.0768294178417923,-0.808190399155802,1.29085996582067,-0.790454142034745,0.827162673973957,-0.510331505614293,-0.762573057604598,0.675922489590001,-1.11103989444011,-0.321242616702723,-0.721592554240535
"sig_16",0.901447214740798,0.92511952675109,0.531718350031038,-0.267937702060675,-0.89860689823879,3.07559364242688,-0.152846538463023,2.75357855518129,-2.17170840097241,-0.0748329319144279,-1.5386249267568,-0.27929830828164,-2.60004009766252
"sig_17",0.414934858021536,-2.59341618464248,-4.65417391978649,-2.7617996957221,-3.99325980185661,-0.345098075184297,-2.26334244591778,-4.07535675513208,-1.251768006805,-4.1469133200242,6.87058695317237,-2.07428693786223,-16.9816828623315
"sig_18",1.17305636021715,0.44325608497888,2.01925367207095,2.2693196802425,1.25833449778079,-0.0118630194453137,-2.69374825498612,-2.25652451796521,1.23198815741154,3.06823359004364,-2.20924583699912,-1.97189923689634,0.987555200426193
"sig_19",-0.901109019811305,0.509504327765086,0.275314529586627,0.565958689967962,1.36659883066559,0.822784034827706,-0.755776361730568,-0.534610330345617,-0.443337412508742,-0.189181988594043,-0.851951426183109,2.1133863635942,-0.163080425985763
"sig_20",0.174621501004521,-0.561046362010601,-0.721425013177018,1.12801770945552,0.0620153454135804,0.0446852948145086,0.396223694953272,0.131402137241503,-0.757988015825328,-0.519123448350002,0.283833242167507,-0.149656358760165,0.532726255303709
"sig_21",-0.561513901449517,-0.0829783920466738,0.0592835508150607,2.07918453659134,-2.04689157903544,0.649001410368396,-2.70362232095548,-1.30315079108384,1.8961298976342,0.128455622876187,1.06430718503336,1.54316027742823,1.89100164533064
"sig_22",0.531245107181955,3.61261012333441,0.692477382333195,3.73355065923106,4.91016426842105,-0.931190897829938,-3.59144651620021,1.26058179727965,0.983731472417642,-5.55607891423054,-5.2528910654147,-3.27147757147925,1.84543904038641
"sig_23",0.593577355995646,0.698476730177355,2.26113920129206,0.158659178016285,-1.46623380207734,4.17513018150107,-2.21663014895045,-3.382323941918,0.790907814092637,2.69270736956276,4.73025971646665,-3.0598293201357,10.8804985028458
"sig_24",-3.76284412444252,1.73880149992833,-2.02029643661213,2.87277810999008,3.13604462898484,-4.53249804899674,1.16525889931766,2.73056550551793,-1.66083852822784,-9.22096748127607,-0.0204875248696067,-2.87725559759515,7.67425891497321
"sig_25",0.164000066909304,0.364419741650288,0.622224653565861,-2.32330799276472,0.78704580198174,-0.500720568659698,1.18922155579877,-2.77349190848487,-0.0796648213242737,-0.0238092384366284,0.410489741346547,-0.837382623890505,0.63493358428344
"sig_26",1.66287668306454,-1.66397391606027,2.13733884925898,1.05713922079592,0.613988116824923,2.98398863301187,4.24857290731762,-0.475775978048594,3.60890814293129,-1.91442977779881,7.57580237648018,-0.744120547227335,-7.39071028340395
"sig_27",-0.0655186194892185,-0.844770137549192,0.672887378284991,1.34521580978501,-2.59868463755941,0.784435562639092,-0.118392497357378,-0.40246102371567,-0.258560620527283,-0.686662743737255,0.35782139827426,0.119383719468655,-0.380153495889498
"sig_28",1.6430343227483,-0.23560448180569,-0.973825958771745,0.183597028999756,2.8832873180129,3.18029295563825,1.71952440937329,1.29532076458062,5.43025996140462,-4.39006958043449,-1.33964862033019,6.4306926205595,-1.13546074213422
"sig_29",-0.983121686781677,-1.70030603193187,4.09347093942044,-3.77762873506035,-3.05994607646335,-0.258236232686492,-2.22492083312141,-1.36346659704025,2.81613871741693,-2.84886996923259,-8.19955526480098,-10.4324207932693,1.87177771602083
