"","V1","V2","V3","V4","V5","V6","V7","V8","V9","V10","V11","V12","V13","V14","V15","V16","V17","V18","V19","V20","V21"
"BCA",-0.743899551235104,-1.24430494868938,0.0373965522311838,1.58317565563774,-0.414259606541537,0.0632604667926476,-1.65233136366124,-3.12619996875799,0.0720960700812159,1.01842560825737,1.52100273000667,-2.12048103863679,3.29687745968812,1.55269910690815,-0.886242831009213,1.04506670515612,5.31644432765143,4.69754046433925,1.4243191704343,-4.61672715798487,-0.0668332342579251
"KC",-0.328238051836978,0.345461940153583,1.62440194829849,-0.436150783441659,-1.38288705445867,-1.62475783971599,-0.354905568404033,0.944092495966597,0.31884285384535,-1.06262859088894,0.501906399411699,0.790760345981865,0.270085560807621,-0.0897111756375854,-0.18565921541583,1.05393403195611,-0.538474616948357,-1.21650201146501,0.150141011690233,-0.233946568410319,0.236863894534653
"KG",-0.216962130702225,0.371342044550168,0.636031562015291,-0.59899952025769,0.00286910954356826,0.88143123702296,-1.07367002371298,-0.419979860426771,-0.67031501348149,-0.876457554134371,-0.713888729161855,-0.833905126431248,-0.621491915027927,-0.155737497143681,0.582988925544752,-0.469187770885806,0.721458834282215,-0.113401736650207,-0.104109665198063,0.181732874948416,0.0156734356003371
"KI",-0.0584465542466536,0.180150079276254,0.775150435620776,0.82248118599963,-0.197215955169883,-0.239093190569068,-0.0118319032202,-0.907723619933293,-1.43927368492702,-1.92050372052009,0.159438191907799,0.620379210618029,-0.140430533851873,1.23807916292975,-0.238247108910906,1.76072527546943,-0.900650010388727,-1.47930521611514,-0.226621089078085,0.186114596730305,0.109127220663027
"LE",-3.2091956399239,-0.803460380192306,3.32879104430157,-2.06676213084027,11.7574847269748,0.202486845536748,5.06129368262437,6.15339138406566,2.20762525501099,-4.91594815633081,-3.64795209545338,0.580753966443519,0.515841684714231,0.744641557966381,-2.06393322671941,2.74839872964526,-0.668562196018526,4.45011196327214,2.75227443501547,-1.98217657313134,2.07169518503764
"OPENK",0.103487310432722,-0.255626522789733,0.151991105929885,-0.213665042260626,-0.716321932082723,0.85364695902052,0.766032700613559,-0.000787484499896817,0.205145055545463,-0.303351106235538,0.0588423638024201,0.044574872599872,-0.0438752455232635,-0.306176491286378,0.267415173495998,0.467527737698387,0.136181232299877,0.569453206966917,-0.77053028723304,0.216784392638081,-0.0699975357857558
"POP",5.02890623929951,4.49563197884772,-5.71478368193532,1.33595103712908,-6.28527375051889,1.838026429759,-3.64587879394921,-3.95921802463636,0.175273978525088,1.04852737876299,3.67826205969374,4.91864435396067,-0.865137065886943,-3.27160413594942,2.42998506251767,-1.53315643492546,1.71901438395786,-1.76757111254378,-4.63139054560904,1.67179851952278,-1.74062334645125
"RGDPCH",-12.7188241870887,7.95012515665331,16.0912613568624,-44.4921544524856,-19.8237082587327,3.87727564450393,-23.8710031895373,-40.1093498629906,116.059544615354,79.0428024433792,-175.364737632904,-8.19029911792479,247.420797304843,-142.399051581594,134.109546051017,62.0093964825313,78.06291061974,-159.061557939314,-41.5145669750473,-59.954076241105,59.0869775247286
"RGDPL",12.1798428785636,-11.1645807347465,-4.23820660491028,48.3769073495381,13.6872626543309,37.8289458906671,-7.28575972548151,41.2443925465134,-128.312861731937,-102.076539829104,180.005216491289,32.3193058460987,-258.371025713306,179.185303138488,-160.681288767111,-92.5580193673096,-96.0057449600721,153.278582833355,70.2436268959582,58.0068736723075,-61.6259400197264
"RGDPL2",-0.920165967004836,5.22371907796257,-7.32483846680002,-3.77891997326498,5.39842718081425,-41.036098792593,26.1136322668524,-2.11869320642404,9.35730208100432,20.1085631299705,-3.26718615672023,-22.9814685917436,12.2325777976255,-33.9843733700023,25.5421274070199,35.1170650283569,14.5326303647754,1.31518556588495,-27.5616144728092,1.79980985291774,3.11140759102777
"XRAT",0.166559063000788,-0.507488006272253,0.2932027193678,0.398965886638064,-0.313435324765363,0.0874237675384257,-0.251932959244336,0.626910190433025,-0.163820488016098,0.401645233923633,-0.181944485537605,-0.363165536990793,-0.127820275501663,-0.326650891789413,0.205898830529751,-0.177854009671471,0.0460015395985918,0.0923789482556776,0.105445907596424,-0.641373776384217,-0.229432093749254
"BCAperRGDPL",0.493280676587295,0.969388412274391,0.106015259969272,-1.07300124072599,0.738954998791749,-0.207864877468677,1.61765517321384,2.67697060075075,-0.86654359710037,0.0668611259188563,-0.0875922907596169,2.5347426186309,-2.25031498585088,-1.92410442549179,0.124772714822041,-1.86919920952245,-3.56299660438015,-4.61775695978522,-2.76759989983688,3.89795979764643,0.597392721986735
"KCxRGDPL",0.944436380465439,-1.71680402464014,-2.91185613844275,-0.456700991116958,0.70287131512563,2.98858157525038,2.12222949654371,-0.908954927042601,-0.926624655054042,0.0403865089296358,-1.52715219420603,-0.318126023253626,-1.24643991636339,-0.145184803391352,1.21218223969204,-1.88475060935293,2.02501522680291,1.87211718377991,-0.761954408525324,0.288700377974505,-0.698353101982979
"KGxRGDPL",0.336120960512551,-0.480278289427048,-0.758843962227945,1.08669520631995,0.0952556282451555,-1.99524739052067,0.671148181679294,0.725683017259236,1.02707202135248,0.295589683345243,0.29195415118194,1.81902565136248,1.07348254425135,0.1595156430575,-0.602985310563946,0.527996001683396,-0.603086501909171,0.441423764858336,-0.680768297016383,-0.00714537859512578,0.0279873169163864
"KIxRGDPL",0.387886779814596,-0.205758711051427,-1.4456139015793,-1.06936244362862,0.0395125285277367,-2.70621458255739,1.77866536813276,2.0904194444948,3.27789466676597,1.88405423854253,0.164837626785466,-2.14066352859031,-0.965174806178183,-3.57627931020798,0.583797479703721,-3.49142246785671,2.27387879118098,1.94516381446599,0.0307650229624762,-0.368932683807754,0.209818416830393
"KCxRGDPLxPOP",-10.1178636896414,7.39193255129389,-8.24641774986869,11.7382572254152,27.4244127913156,6.41259605091957,4.31140384895133,-0.8547133266982,-13.3586974103655,10.5784774013055,35.1157209502163,27.724815379366,29.9604133416472,-18.0004629200764,-2.37968161674128,-22.8534637812741,25.0285646622396,9.3364782349087,-26.7808615138868,-12.5605460448078,-0.192928518754337
"KGxRGDPLxPOP",1.34287606527528,0.767556759851606,-0.758570859930321,0.902948876514729,-5.77472612090585,-0.206262326219085,5.00923213398106,3.1420947756727,-11.1459957247795,3.82898471995416,2.03775087946861,-12.5056454037507,3.78479144795139,-2.82203215347565,-3.08903703754247,-3.05866754850373,-4.46783171691531,-3.15432358130948,3.58663781004464,0.759655455675988,-0.00629783402741779
"KIxRGDPLxPOP",-5.22255035656596,0.513591424864066,-3.18416622655953,2.64512403887408,2.74530583361766,7.46432697488491,-2.80434744741909,-0.505608707297979,-4.15578391981166,4.02690671376674,10.626440705693,11.0212080916248,12.0268808456736,1.42448586353673,2.63261764599164,-4.23316573494621,10.1934875592848,1.81578400239442,-5.12754493821071,4.34889994351832,-1.57849515927036
"RGDPCHxPOP",56.7129991805352,84.3016357697264,-15.4238181301761,-165.182255242154,189.840316782924,25.0583380101201,152.107994177138,295.204694718752,-39.4105590666113,-240.981461642376,-162.285680694413,-121.924513491613,-582.812786545912,-172.42752775717,-1365.21607262563,273.189385599558,9.44788071240137,-119.879373675485,116.507990760947,425.548390157676,-1426.18782439108
"RGDPLxPOP",41.7932225795877,-88.8452935148939,48.5700020275637,181.362869030066,-294.392166249812,-153.625609394694,-67.0472819837557,-327.114980323751,-79.0907602184236,289.705183954664,111.572333797508,-125.146504978789,568.777407489513,44.0390811428389,1404.05325209139,-255.53888399573,-148.96681846575,138.485712218473,-37.6055897960853,-508.608547043877,1574.2534923879
"RGDPL2xPOP",-85.9519195252229,-7.73271229027823,-17.9112856994968,-30.3560532299505,75.0819784949358,113.060946883759,-93.0309635514576,27.3879082985402,144.439334147539,-62.4379011835971,4.32725331982917,215.260743229788,-30.0900861296383,150.296083813888,-36.7881193596432,10.5995220713327,108.988771975258,-28.8496661005861,-49.5623210389994,90.4303169021859,-146.539749882216
