"","V1","V2","V3","V4","V5","V6","V7","V8","V9","V10","V11","V12","V13","V14","V15","V16","V17","V18","V19","V20","V21"
"BCA",-0.152190688622305,-2.41343556512711,-5.39149096110345,3.3435291830319,2.68632508312461,2.57795029484768,5.42224269408088,3.00144103184065,1.45616648344638,-2.22352059226118,0.756991192996782,1.38904749593907,2.33925203546359,0.168192858279144,0.247175366161783,0.683217958555118,0.537157550764343,-0.535041951281425,-0.903443040951739,-0.738810064862672,-0.353751077294046
"KC",0.103697644745182,0.440659566249005,-0.0319057444612751,-0.00510926250680157,-0.0873872977191981,-0.943841387633432,-0.946431602496952,1.11983114855327,-1.75433151679477,1.36296523261221,0.377511949110673,0.107250390431354,0.0339225974264366,-0.222062147303135,-1.09956106490725,-2.0762370846759,0.0875543866759825,-1.05368497002864,-0.210728834207424,-0.176603175745663,0.199183109527504
"KG",0.0943538913527039,0.26637631436146,0.24732971300211,0.20579014392864,0.401410000425454,0.123561529100903,0.327167074153387,-0.222699289116375,-0.330008571611063,0.571675230309701,-0.0260026621985746,0.522057295374104,0.554893336791317,-0.130323663479046,0.75557765821629,0.218930510035394,-0.157611599204525,1.15774163173674,-0.303770613754233,-0.246682497454699,1.76150841315816
"KI",0.0599880438407669,0.22005413286196,0.729736584027598,-0.416800493382558,-0.163614292112594,0.365536026177129,-0.368814113059451,-0.0356752955525034,-0.713845733716076,1.28367006842109,0.791204929627469,1.73387468301939,-0.346325479740413,-2.43495511328423,-1.5934022289177,-0.718996437448091,-0.542197400917382,-0.821055451121486,0.263457100994113,-0.800774903120875,0.579527102860921
"LE",0.176498073086431,3.91923440189744,-4.06724189577804,2.38654827040554,-2.80624166273732,7.69895469596541,-3.34275021341467,-8.77793264801711,-7.15363225000279,-4.39238330487056,3.06329345001946,-3.34608552729642,3.81928566549269,-0.0142285492166267,-2.2364390337293,0.158129033117704,0.491509723415961,-1.29842737291816,-0.876267685175515,2.72802660520494,-0.899816074412624
"OPENK",0.041543247324311,-0.0963505909772947,0.175210859527693,0.196974974368225,0.194531249247452,-0.329745850167297,-0.00234675466709077,0.36092630170077,-0.47938087413547,-0.304300728690612,0.451412480008872,-0.866118858827354,-0.396297170778442,-0.700792703852778,-0.105361123747372,0.47748441106693,0.443495612491706,0.771243515034027,0.128120500993742,-0.614566656665996,-0.150558333151512
"POP",0.251034354805164,-4.71954513050081,7.42943129451851,-2.98251980468903,0.797651903563601,-4.19185782604038,5.92926624296773,4.07237013245192,2.28641315789145,0.0395416892546918,-4.26017120437796,-0.372810227630256,-6.32063054919511,1.52363440512524,0.157067684368202,0.537679274059041,1.09712874720988,-0.200473758346335,-0.109570017337554,-4.11136804290924,2.26503716224778
"RGDPCH",4.21349900967721,-10.9525011126252,-59.0282870194812,25.0109229096471,62.8189208918167,12.2862588258736,31.7400363914557,-14.221680595539,44.2327416918465,-4.69695629541588,-52.9103518753734,17.4802254196759,-67.145710387365,26.924011479881,-7.50216287367881,-286.496920017938,244.158500596335,155.452749276519,126.74605344211,50.8382126610101,45.8494648218487
"RGDPL",-6.06347935498351,13.1376193526165,77.5178365864477,-34.5282550046224,-75.7748753428231,-2.31872255854159,-35.7227010655609,14.1557519988886,-51.5671759190394,6.2048021982776,68.8371068561153,22.7786841646994,69.201605427478,-40.4051134950054,52.7157219617342,292.429110018675,-253.232441193151,-167.733488536066,-184.547899925699,-54.6419096683134,-45.2120808839836
"RGDPL2",1.78984349638735,-0.86726896895874,-17.5946302073745,8.75950514555669,13.3163704386729,-9.24766869181568,2.62985249695767,0.14132419038978,4.4881156478747,2.74889927649004,-14.1571388801052,-32.846537643026,-1.91430598515329,11.4656565221613,-46.9249565043714,-10.9942196461569,7.62235900750397,11.7823416846998,55.8631995763775,-0.133318002091505,-0.0934783048094328
"XRAT",-0.0955210607212232,-0.269435870130988,-0.620756732482314,-0.0487460839268202,-0.140257750823201,-0.255593446667133,-0.445449986465423,0.304756567210884,0.105880368791248,-0.0763728661325341,-0.268398977505571,-0.0168818543779511,0.5876650641332,0.156457538100179,0.645783577642973,0.159657650496844,0.476328972120692,-0.140541385614121,0.204361409437737,-0.364035862601699,0.127138164894011
"BCAperRGDPL",0.211855248733095,2.06591046685115,3.6996471232145,-2.95160470097233,-1.73607254516465,-1.95045148727106,-4.96364132876831,-1.82605322850665,-1.30869210681646,1.33650177358547,-2.4061224188449,-1.08996549322642,-4.04828801378699,-0.00109959083173793,-0.210083475064301,-0.289007824871452,-0.998639482840427,0.268493397197372,0.792526425455346,0.714059374242248,0.471412136210506
"KCxRGDPL",0.213646826842675,-0.562421348043433,0.827331071281087,0.363700361481806,0.26592280639945,0.745403017660679,1.11864561720469,-1.27272976814764,2.31035164813456,-1.93370533523775,-0.83234327885422,-2.39371521053059,-0.0607461513796716,-1.80085580534341,1.52371040083518,3.7968021395322,1.23229015750528,1.62466334445702,-0.410858902828842,0.394297401549426,0.981057909827445
"KGxRGDPL",-0.143607418924297,-0.392271602843747,-0.317392611507247,-0.576145271861865,-1.02568808008555,-0.0155885792836128,-0.231351627281987,0.608894520048539,-0.0375101227977734,-0.785189805507163,0.149587266249958,-0.437789756963655,-1.07460589509372,0.612340803641651,-1.9335997645698,-0.184392608550782,0.902913717205168,-1.78360970014156,0.192415527411267,0.668993137953761,-1.02276433704727
"KIxRGDPL",0.0188657157024113,-0.472779046427381,-1.51663944255841,0.790119777961945,-0.123490021010334,-1.65016526494973,0.251241117752533,0.723912779983971,0.623733752436216,-1.86173711998499,-1.49949713499657,-5.57942990749416,0.843333206167155,3.88838434015759,1.5704693727913,0.759638120473971,-0.491107611828435,-0.150360469491008,1.72075954334481,2.90520420690587,0.566573069893045
"KCxRGDPLxPOP",-3.0666799934907,6.81425687519349,-18.9552329076663,1.04730225915055,21.9133878219605,15.4785196200283,14.3514250141767,1.54410720207099,-4.18718974707557,-42.3904749495086,-33.1075333012657,1.39553828457333,-43.5384008908951,12.9983532317822,0.122004696417038,9.54255346847367,-0.740521479372238,-18.2342904610586,-4.14265534756145,-8.99887104820047,4.83980003923213
"KGxRGDPLxPOP",-0.42843872568139,-4.109689894198,-2.19793623471763,4.74292056012637,6.29148983447313,-10.6022552326753,-9.86089499361081,-1.69057345996816,5.13081521279752,-2.32286036210468,-2.00195574847779,4.26610265020207,3.37976293597015,-3.8930172945937,2.88600960416685,0.0620825839689105,-7.07664347151353,0.774392149114273,4.80173223354058,0.6897743798052,-2.06033634292661
"KIxRGDPLxPOP",-0.0829609821707296,2.98432038278064,0.94039213493209,-0.978013000394727,12.9788363333926,7.79241773219273,2.67174505741121,5.53695722891957,2.59067502007233,-10.6331872735211,-5.6228429428084,3.84311182580348,-12.5705216851874,3.94868972329593,-0.269237389185554,2.78329771194884,4.20622746995178,-1.40972129626191,-7.86320456402663,-4.33926708754584,-0.166452622146106
"RGDPCHxPOP",-44.0363886380992,402.702446631067,742.90566319661,27.5798564962866,-893.714712226314,-85.4295564976401,-253.332035791561,448.28922856809,-398.709337611507,-737.074313464101,-597.205169346386,133.205690418123,957.824246651494,-329.022683781239,-333.243469834335,239.568971553972,-727.798338247674,275.505886553782,-159.918348311435,119.225963439449,-344.047718707988
"RGDPLxPOP",49.5110441084814,-564.191394319039,-910.046877077038,-9.76713113041519,938.040202426055,-154.749528407859,188.641602452613,-570.69952881263,444.014058486302,845.450704311676,643.509274339656,-150.502286919074,-860.930704624599,274.965436149453,338.551292703511,-272.471476881987,643.228480038267,-269.41310190494,344.750167081241,-85.4333718411658,344.640818642487
"RGDPL2xPOP",-3.31367283651254,156.124782967644,182.767665368013,-21.6016630532943,-82.3610966157893,224.583231037745,55.5213285701354,122.627136976896,-44.1089068566506,-49.561246717446,-5.30599275531168,11.9296835151759,-42.8252414513255,39.8073315112675,-5.74645089941012,20.12352355954,86.1122632261435,14.3459989295046,-176.723138370286,-19.8839978840414,-4.76351000569662
