"","V1","V2","V3","V4","V5","V6","V7","V8","V9","V10","V11","V12","V13","V14"
"sig_1",0.113640517279578,0.0138458137827193,0.311540824280795,-0.352847068672484,-0.131630854475796,-0.490327601027136,-0.18880035218399,0.0861268918254294,0.10464561978739,-0.0165348373559216,-0.185417708106485,-0.108352290873759,0.299600209105944,0.282425560371821
"sig_2",-0.259749386102086,-0.230416756880964,0.206177350988673,0.0529794633528157,0.081798103340742,-0.315229378879269,-0.0714180860620824,0.00857638834952255,-0.173369107600525,0.301592403126817,-0.116272958486801,0.0603950011020453,0.422709243572753,-0.422367237499798
"sig_3",0.110803356710675,0.0502945229352953,-0.0989419239972187,-0.414766351517974,-0.39208926173152,-0.0239679899595945,0.142331811743182,0.186228071371477,0.0410034706962531,0.136594974588002,0.173590777331411,-0.227385475874651,0.114412446120596,-0.0511197405536216
"sig_4",0.0204435707235848,0.27528321134948,0.22041272225444,-0.0456941929987442,0.359991259891663,-0.0975568222862318,-0.195774289758039,-0.100058044996181,-0.0746164105749031,0.24100568021563,0.383034849355392,0.652163232906659,0.0543460452975735,0.0548648437285315
"sig_5",0.0753714574541799,-0.0851252028666611,0.135552853144802,0.340834590077874,0.0363700029505855,-0.221036774394452,-0.487332446660312,-0.163989947090212,-0.0835199763862664,-0.179125895966552,-0.0624337015339391,0.384340053430768,-0.0762568150550741,-0.131328188347078
"sig_6",0.0164910947310216,-0.0323848460320619,-0.374621104665999,0.116036815714539,0.170238332720501,0.359676641973819,-0.38724136138081,-0.203926616653463,-0.00354990447335425,-0.121319619509435,-0.292715206736938,-0.321748614575831,0.580771811371018,-0.0905133169188135
"sig_7",0.102956886362295,-0.191768445534626,-0.436525310740451,-0.0224713292310724,-0.119235673917409,-0.276835644567681,0.465118438323557,-0.699347222401679,0.405090737264635,-0.158665298614346,-0.196546289450991,0.209859686361076,-0.420057182855625,-0.396012367525647
"sig_8",-0.0687347695503278,-0.298051204568414,-0.234454405621425,-0.613143433504686,-0.252596763979183,0.265994777608304,0.0694384614087817,-0.158561529846301,0.189752411053891,-0.0957033701661402,0.284882664968619,0.270172812258935,-0.368275211838731,0.538926035191375
"sig_9",0.0743889141505447,-0.244564213950735,0.0636016706927674,-0.0527340411082998,-0.0626962807669537,0.111663333600243,-0.347987972220297,-0.490238397271941,-0.111931009408147,0.227018410762399,-0.324869667653515,-0.298946318962001,-0.214168067943877,0.116526925154518
"sig_10",0.0194237095587388,0.183860086128856,-0.100776449468255,0.0636786573284067,0.14574911487264,0.177357286948771,0.292657642812861,-0.06390787448021,-0.332420650537309,-0.900015508704092,-0.0251334680305383,0.189411968681524,0.551959507806507,-0.276274160150101
"sig_11",0.0524340128584178,-0.31901789661029,-0.0935507751764584,-0.00470286955231378,0.198130132842946,-0.0403994861319341,0.698924744153666,-0.00229363096501418,-0.487996839175005,0.49419609708749,-0.640969702867303,-0.155585541120625,0.114983370567126,0.205501368953916
"sig_12",-0.16179712261408,-0.0657151909756364,0.532976586960357,-0.154115591768955,0.143934870826436,0.00282346157452411,0.270257301964271,0.172451049104172,0.231305952460515,-0.319638608512872,0.233330516000284,0.151022990765133,-0.185607662544404,-0.0649870173224148
"sig_13",-0.0880883276655857,-0.0406421349998213,-0.162965692282258,-0.146650330973346,0.287654344923499,0.15293449357794,-0.138206243814045,0.0725487065436735,0.251038309434644,0.424374874445399,0.0968606719020088,-0.179466158827688,-0.0152848643234598,0.223486428282472
"sig_14",-0.263907152066854,0.189818549667919,-0.0100903446290879,-0.221076998566046,-0.239588017396454,-0.143780357919411,-0.201008073016656,0.0206990239451274,0.437838431754341,-0.363690894545314,0.632442188131317,-0.551681129797806,-0.199183978158589,-0.318392551210632
"sig_15",0.0521789856626713,0.191316742584601,-0.402772799194655,-0.137721538875807,0.128532141800276,-0.378963471456975,0.083075833720532,0.161469357992395,-0.348624895139537,-0.266207980115739,0.022156925753577,-0.180743948443454,-0.162395925669472,0.0506884122778389
"sig_16",0.046043733065441,0.0390367905090408,0.168458378932663,-0.393339063198075,-0.0878926950743633,0.177146068191485,0.0965389182163615,0.231869400667036,0.191794799437639,0.0194329343345414,-0.527159747985586,0.0765969717841924,-0.424752257866135,-0.155380782226608
"sig_17",-0.199363709729226,-0.318460523443079,-0.0204154803778427,0.251365065333968,-0.279662041473697,-0.0428383592146812,-0.50668416864364,0.105699180491854,0.238960423230302,0.170562985358641,-0.208836677743815,0.136254260065633,-0.284937972266985,0.282542611861232
"sig_18",-0.133669434249345,0.0973939812932205,0.0746133819706548,-0.0657258477263912,0.0663638999468598,-0.0530850858473975,-0.0674022850688299,-0.0458492970601428,-0.318349517891322,0.321868662674576,-0.105318120774982,-0.0411200111546014,-0.215208101919162,-0.629776409034365
"sig_19",-0.0372577663082949,-0.0664978862046561,-0.162670828115568,0.178763820713683,0.330627252348743,-0.143157610664473,-0.0674172860795237,0.346228333375533,0.302359183663503,0.113856373851801,-0.1957078975736,0.176439103391022,-0.0592371100351177,-0.205500440973438
"sig_20",0.182248772324668,-0.0659348287809628,-0.199857380909953,-0.104102942366008,0.212029186241811,-0.451442561358241,-0.129399176095545,-0.264722100868782,-0.343088153494646,-0.320949091620316,0.329667336557933,-0.046485116132549,-0.27108674360049,0.0425000048985077
"sig_21",-0.0296833169240151,0.125068709656408,-0.0750855322065975,-0.117190495697567,-0.0578468382655902,-0.0888265653065968,0.0962168436394238,0.0105900919822528,-0.019894024795986,0.396838510622642,0.549741540325556,0.198634490946262,0.0397356533869455,-0.0195250716034461
"sig_22",0.028185320692652,-0.149503453723462,0.402379721732539,0.18993066856467,0.31660610062664,-0.198195657988225,0.456453443907279,-0.0212451338194464,0.199727722496959,-0.252677302155064,-0.0179329440048799,-0.35666599710873,0.219854475336579,0.162037883022646
"sig_23",-0.167460969868855,0.316806415324442,0.298911380062594,-0.197693650492116,0.14719243544593,0.124149459640303,0.220822434675487,-0.413724456095206,-0.449755910308828,-0.242589489095464,-0.0280106705168811,0.24469707246509,-0.186853120961259,0.58258143182151
"sig_24",0.0857650515033915,0.0632663456876351,-0.171177323022381,0.119295100318882,0.185419605240844,0.0953332714717597,0.156924003967609,-0.0381067348091525,0.287394435734892,-0.00760151367890265,0.118512025954689,0.219166720400419,0.357222428781533,0.366865410731935
"sig_25",-0.220718063105814,0.241875408522655,-0.117799621586389,0.0544557687715562,0.0611473654906092,0.358932876002897,0.1095037179837,0.473029120597072,0.389573492124775,0.26857681097086,-0.703611977445351,-0.18102373384524,0.120912612519796,0.118719258141602
"sig_26",0.0188644604383209,0.356410805391382,-0.3192496203418,0.00974366801115036,-0.843215011746123,-0.145173115896843,0.105412624652933,0.341187889982044,-0.410076521025175,-0.0370367307403519,0.012408359064736,0.442443812285659,0.270024422221421,-0.288064814020932
"sig_27",-0.128157110638815,-0.394631048833937,0.0782129532815833,-0.154342341689211,-0.0587177361813626,0.0501812302436073,-0.039119409244778,0.560846103312457,-0.358215994127534,-0.165643907952439,0.0602314836695664,-0.162335498984802,0.0331826400448411,0.242554996077526
"sig_28",-0.406111123784738,-0.274474613269723,0.173298348881005,-0.0802849287098524,0.280386632008953,0.382674443255972,-0.622934508670401,0.231020088382612,-0.379358995157994,0.287224832704243,0.391755118634123,-0.202822920598688,0.13797430961895,-0.0213996225164816
"sig_29",-0.171445881433903,0.589484569974559,0.20416978095661,0.495070649606881,0.0130154714089493,-0.5533247049916,0.218196291926483,-0.066837934159181,0.254422319148901,-0.0222819214453101,-0.491425708469794,-0.452738803562891,-0.0189775688077739,-0.217887753058603
