"","V1","V2","V3","V4","V5","V6","V7","V8","V9"
"sig_1",0.098791290777918,0.00332170993773095,-0.132259976425024,-0.110290697167699,0.070426656934054,0.125211628472731,0.138372110158374,0.287524043487597,0.114584229943424
"sig_2",-0.154501020824047,-0.0983191134391039,-0.0936888373806289,0.097181512720846,0.0279287279647882,0.24675938439568,0.0876952472096001,0.455161151636566,0.140168353347967
"sig_3",-0.118958643434529,-0.141602025937622,0.627772201724504,1.04081862475388,0.183409506450859,-0.469718750266875,0.316580586857135,-0.124521055147139,-0.730927855278048
"sig_4",-0.373932577062813,-0.18903722650798,0.0939650036383618,0.572675391440854,0.160575753094231,-0.0405315031811371,-0.15866474507776,0.0098720157017973,-0.476866846684498
"sig_5",0.153716301960582,-0.603191341648256,1.03327089577136,0.583796770026047,-0.011446738468577,-0.520529854368892,-0.0870819438792059,-0.0502238952561996,0.382440053650115
"sig_6",-0.413597087554577,1.01913083498346,-0.162852135297708,-0.704931627156435,0.176727166266491,0.312976710970211,-0.821648733168457,0.0729291737757751,0.0673615354545388
"sig_7",0.0837680618388789,-0.0704814538662175,-0.286050488446704,-0.127272982877675,-0.0932310474056441,-0.146998357812226,-0.27611747195875,-0.246537961259421,-0.603102862525571
"sig_8",0.0452459474312729,0.325860904366842,-0.131312731698609,-0.139563692399447,0.294310732716565,0.0883324999623868,-0.0848108638599407,-0.688708355935698,0.188681716549054
"sig_9",0.176796314466015,0.0390199902964863,-0.421925807395277,-0.294780332562341,-0.769723421142596,0.427833611206388,0.550922018412146,-0.136731836828766,-0.72342602484205
"sig_10",0.0395443804401459,-0.115393796796931,0.185670845927214,-0.53429541358973,0.339963051047504,-0.262446688051737,0.0667359004105377,0.00253336142000289,0.428883270333364
"sig_11",-0.526513258814178,-0.278199151631787,-0.0245339868365765,-0.691732189639406,0.103376910855419,0.212386325020881,0.340987837515093,-0.101805216259701,0.268988566413002
"sig_12",0.256163247487581,-0.441410562607996,-0.417764179392838,0.105897692336391,-0.020855875427141,0.0363131583959426,-0.123546387047349,-0.393627708296785,-0.174841663455746
"sig_13",-0.259797452790383,-0.388030410552014,-0.465380910796891,-0.611978568569209,-0.301765879727932,0.315253769932234,-0.290937370587022,0.0772340668580103,0.567339195243652
"sig_14",0.251608816477883,0.571982333432597,-0.431808846793509,0.997183952251624,-0.317707109305673,-0.797527081520497,-0.107416721521894,0.352011832144634,-0.0727658308420695
"sig_15",-0.172127882346248,0.288181662286133,0.546253269689181,-0.0927633652344519,-0.251785277071693,0.100005360246648,0.0419215630316195,0.309967520980121,-0.0688427252505519
"sig_16",0.0244734775561498,-0.14101492678346,-0.177310603065674,-0.537916888105359,0.388521988554516,0.277590789544072,0.0941773026502451,0.193748801941789,0.214951391974481
"sig_17",0.52502751558605,-0.472090759008774,0.63279192270961,0.245522400863702,-0.112269093776427,1.02812980076765,-0.161227335685169,0.110599083044994,-0.157597204589385
"sig_18",0.424768007651777,-0.501742208322596,0.76809413496901,0.00619543836536836,-0.401066967119078,-0.454724401768353,-0.384278583992587,0.405289041613401,0.242448164422497
"sig_19",-0.100045422675284,0.392577362578999,0.685046130944247,0.710152876324713,0.187271154628925,-0.210973353700805,-0.371369118968528,0.278038662837975,-0.181773430309695
"sig_20",0.197231447176436,0.529466695160922,-0.357661411462678,-0.629731651495177,0.481671378401006,-0.146401597935764,-0.168770193444569,-0.100720257800137,-0.0519804950547568
"sig_21",0.00452370171659091,0.364516349158363,-1.00049647627135,-0.649796214758902,-0.100894228245421,0.465198705731204,0.159872175087877,0.192808638341313,-0.262698515533912
"sig_22",-0.00861334321872025,0.193187216263719,0.0786206473572607,-0.0866358209229648,-0.241994467604025,-0.0315770505604274,0.319130607187285,0.302672326208914,0.554393900142645
"sig_23",-0.0232679782918124,-0.125531069559892,0.433807281401653,0.265391904747113,-0.101212379217768,0.547445031736305,1.04664874697406,-0.93060338034969,-0.101504964579356
"sig_24",-0.396395289279896,-0.240857349262542,-1.43416764389025,-0.296260668039512,0.549334790124518,-0.448356027283978,-0.114128842256439,-0.511993368914926,0.742889007816582
"sig_25",-0.328978752598344,0.0476700687675055,-0.372634546813447,0.12795079103021,0.000490557626954094,0.238169978114425,0.245058471807725,0.287132602041362,-0.078853521500665
"sig_26",0.428174724679571,-0.190557291657063,-0.304638885220498,0.125350518947904,0.857960115273003,0.0961664856868699,0.074335888163158,0.294709067955139,-0.335309516566337
"sig_27",0.01261710082185,0.076898460505188,-0.303340149719073,-0.0756836734853279,-0.504365366687375,0.0534781291141155,0.175871295418687,-0.0163291873830028,0.195074845630856
"sig_28",-0.219057426196955,0.0364582626238081,0.375618181181995,0.0781348870819654,-0.00322188681436766,0.221379898129568,0.203886508062608,0.202645677797806,-0.245622498505514
"sig_29",0.13368734943349,-0.441366248833513,-0.192984658218277,0.0978670665455759,-0.426531312151629,-0.0631090261928874,0.0781973205751449,0.78304360732097,0.0840057259966367
