"","V1","V2","V3","V4","V5","V6","V7","V8","V9","V10","V11","V12","V13","V14"
"sig_1",-0.0520654919232348,0.075737818719701,0.330442258090517,0.00330443932527252,0.350999509394517,0.195481337345446,0.158670144248621,0.101064563848358,0.0805368256476766,-0.0710927732652026,0.235867539552567,0.437501622637586,-0.214348179218529,0.0898053005118367
"sig_2",0.0380508065685346,-0.112962136700359,-0.100258340834053,-0.00613823889069394,-0.359956917331482,0.316475531145333,-0.58482026405592,0.172646851059536,-0.237626364754131,-0.000391961548598732,0.223141715055513,-0.0783355079680713,-0.630564304632199,0.0828673229139073
"sig_3",-0.0705407761547261,-0.0526734604075605,-0.0268677259225807,0.191046169856304,0.162143688201904,-0.436563799517329,-0.179557550498863,0.327558376264003,0.0895617012633633,0.147581428895274,-0.0160809923177897,-0.172192150473543,-0.317162704094017,-0.355321795089103
"sig_4",0.139844733535929,0.162600768696581,-0.159203537746593,0.0143936234215353,-0.541581692589694,0.28170612539381,0.52942487643411,0.420065392648829,-0.481141849748636,0.687332149996013,0.399406567560051,0.836497709083646,0.289881714067533,0.110967449516214
"sig_5",-0.0657758881783509,0.0489461283012665,-0.0396584679202531,0.280743380360861,-0.0785368143184814,-0.0885611408855368,-0.183027706422928,-0.165672169627718,0.0505552406986586,-0.030807684891322,0.0255586963359462,-0.0745502331508553,0.0465051625586239,-0.223422954396259
"sig_6",-0.0780794304654347,-0.238864200763896,-0.170370160770612,-0.192734521610719,-0.201021108102422,-0.123640382381389,-0.0522647018219921,-0.325007829413598,0.366938513971482,-0.589133993175749,0.282900103521299,0.0449791179052534,-0.10826184579673,0.0657866437291055
"sig_7",0.0916086345313505,0.11312065704054,0.376667238513825,0.00840764826668678,0.318598834144551,-0.0390070878691063,-0.38416355222282,0.330824571674446,-0.00102460012169772,-0.449364335812109,-0.144012887482045,0.0217823956127725,0.350040566175185,-0.136549595704421
"sig_8",-0.143965603267282,0.203085807716857,0.799624057730153,0.0822826986882418,-0.129476926711661,0.248718057105613,0.519230366358,-0.180246415953685,-0.0570440471387394,0.281382664552029,-0.03570955332023,-0.02583820752165,-0.0967282270115633,-0.18695914479464
"sig_9",0.00961211400103918,-0.138902465327774,0.154969520255372,-0.197659105027244,-0.161511349028031,-0.19449625688514,-0.241113270546159,0.823277848576877,0.398234864670024,0.195266508410628,-0.479120326431185,-0.211385324969876,-0.106221292643555,0.121896963058921
"sig_10",0.0549035169068548,-0.00263365501720879,-0.0448347642642375,0.0779040119410621,0.223201789938074,-0.449603992861451,0.125525240818607,-0.205818326912263,-0.316219248133937,-0.137766436004965,0.286790767260479,0.133268659083607,-0.34620587614704,0.475193609204848
"sig_11",-0.0162364131990244,-0.198152619447898,0.00664809813088393,-0.023510550605119,0.267546325335194,-0.0347972929299762,-0.978914322549411,-0.579576088573534,0.19372930457957,-0.279702944867101,-0.71915404831886,0.142993861258952,0.0242384782211977,-0.150659925010484
"sig_12",-0.102741836509053,0.102625173075664,0.291444294224983,-0.0732354590942814,-0.117084563727327,0.152361721704418,0.00615674232081523,0.174011611104518,0.363075561965212,0.494832600837016,0.704343898639244,-0.161404452583849,0.486260932888017,0.0508638214526475
"sig_13",-0.0765324124193797,0.161587773842526,-0.201323147756963,-0.19083259150885,0.255132814919038,0.440336616084592,-0.116424254950225,0.378556940576692,-0.0530029318273885,-0.054207470622239,-0.291221266747041,0.05199900557856,0.215104859804897,-0.266272178615259
"sig_14",0.0718433527619353,0.12459264071094,0.214994438300692,-0.00991013916870763,-0.258971058484516,0.0420483243836535,0.356183406935825,-0.0767083943603629,0.901654469511709,-0.460948911741325,0.0984180851500062,-0.502936927386593,-0.364646246950488,0.344745462955335
"sig_15",0.0897776359156722,0.166606188804647,0.00295969452141753,-0.0966704389152312,0.0105075901730567,0.00713714333522343,0.177123761840027,-0.45180948145477,-0.46585107348432,-0.405142089138969,-0.142709594562899,0.0917397760173557,-0.11043579952448,-0.69951882190885
"sig_16",0.0283150318512034,0.121600039676094,-0.221773105049652,0.137999271637935,0.0488621888506974,-0.163574923916469,0.399298493900731,-0.651900465820687,-0.763515272269358,-0.504478478144289,-0.201543338535897,0.209878899457307,-0.41509375479254,-0.726000866655384
"sig_17",-0.267815961691695,-0.346510494791114,-0.310423367070455,-0.0337988658396631,0.425795604411879,0.0341928725222216,-0.248391745683984,0.219984398551843,-0.34913341899059,0.619360784451423,-0.578686547740079,0.389044080266651,-0.235253829500058,-0.852047190311058
"sig_18",-0.0442866864756527,0.330010336643634,0.1841612775091,-0.42170614582137,-0.35567844392282,-0.392722255995285,-0.454942872083968,-0.279976344197137,-0.369087335201718,0.0662280213477948,0.275499287688848,-0.142810416026351,0.42075437133309,-0.28819587822377
"sig_19",-0.0671141660639042,-0.0213077573075892,-0.163581490864395,0.213713889960417,-0.300780404211828,0.0290567200375185,-0.0785764687715031,-0.851743258800802,-0.353259013473899,-0.391621574251754,0.468897708647787,0.155637766159137,0.252717197418903,1.16032141500839
"sig_20",0.00952703539785007,0.0530830860357167,0.193405614349709,-0.0797700478447839,0.129206181474107,0.158461043825448,0.0356163057665531,0.361592211257553,0.323471907482621,0.269970699693969,-0.257161001392604,-0.054044740531981,-0.0242973927830705,0.716728281243894
"sig_21",-0.10400607616879,-0.175532751498562,0.19019503749874,0.0797498343331978,-0.169079104351512,0.176874998256934,-0.328495531982057,0.112473907519851,0.214625219993743,0.172386309753242,0.119874344589013,-0.143137745339652,0.472322986083029,0.548737518912566
"sig_22",-0.0139260293011924,-0.0650016404960576,-0.303188718708587,0.375379098699633,-0.157363848803296,0.444389381640882,0.156110404421778,0.362771101608793,-0.0353755869015901,-0.816279623946524,0.190399144563653,-0.477331293216298,0.285897113917825,-0.0202634914840522
"sig_23",-0.0795743270282581,-0.0694518288211926,-0.126834170825656,-0.196633539892144,-0.00848127219521938,0.106616950828168,0.864187955092184,0.350390254749493,0.471936671635114,0.179251988259921,-0.473458873495436,0.312012633440792,-0.837799709367018,-0.302820063478344
"sig_24",-0.0931304129336244,-0.14795590597807,0.340585246784044,0.786292231405096,0.888008515502243,0.182164429691468,0.164228268139872,-0.312227500003533,0.697798515152289,0.628829315589017,0.166192820160818,-0.123571510063765,-0.607947698078686,-0.464504891357365
"sig_25",0.0747616529387418,-0.0723496351869972,-0.122609809021701,-0.234563475679726,0.129362724425688,-0.26268502542002,0.305578966526074,0.0862100085069743,-0.563997068057683,-0.130899422255093,0.0625506088452548,0.137645517735052,-0.312150297889325,0.176692412364254
"sig_26",-0.152041206710728,0.452972701105553,0.0478311195481605,1.01220635432892,-0.569802689938719,-0.509295380534002,-0.780740389738169,0.230295596887904,-0.760855701351851,0.0209852017856313,-0.0287688466495204,0.0891316471911255,0.788754832361704,0.399221571568423
"sig_27",-0.0771001562071286,-0.66829499503732,-0.0369329802478969,-0.749885967022262,0.0407074534050519,0.345336164409,-0.37416093947181,0.274371773073007,0.277293464652396,-0.264798370974891,0.373052974892583,-0.204067038733311,0.499472993821117,-0.370347360649314
"sig_28",-0.181398089037706,-0.0015307794423351,0.571892176415931,-1.06175015886819,-0.719147665759309,-0.263647412622252,0.831748966954199,-0.385223545260935,-0.0846631314126037,0.359654968028537,-0.548909512829612,0.127319478831529,-0.581721444235718,0.345725091582015
"sig_29",-0.300642840668646,0.421254814892055,-1.02728208320357,0.0700489637181866,0.747991507939303,0.27919646297431,-0.855449402596765,0.178568043219252,0.0773395273545617,-0.401609760865022,0.502782505827444,-0.0124115183962311,0.106128722707432,0.0635984525367214
