"","V1","V2","V3","V4","V5","V6","V7","V8","V9","V10","V11","V12","V13","V14","V15","V16","V17","V18","V19","V20","V21"
"BCA",0.815296534659159,-1.19171028805355,2.71324629391296,0.988455864545096,3.67247515741835,-4.37993973190856,-0.258845613217703,-0.764386582729078,-7.82205312063022,-0.601257414865478,-1.18844311595407,1.15046080074242,-1.26183168826805,-0.768721316514579,-0.593825039426446,1.22839465207578,-0.812221662440138,0.0488252067563959,0.214392675790576,0.0360995315030046,-0.404509426200951
"KC",0.0288070624777908,0.393268607308645,-0.307819265731202,0.283057316952241,0.735680089144152,0.863905028811831,-0.68534010198172,-0.00364747864937081,0.892571598019584,0.914875850992159,-0.171265090993645,-0.452548904225299,0.676671221368568,-0.0636035540775334,-2.49801884727244,-0.678022002671593,0.266044613165034,0.488244828953401,-1.34588303698092,0.310894561510992,-0.801007405781139
"KG",0.0762767883708902,0.0639802042927897,-0.187288916609095,0.307814983872065,0.469771081150222,0.401860825592145,-0.634916723626155,-0.647142463779781,-0.0299781910096177,0.710827274208,0.213785055612771,0.307285304611719,0.149473499996117,0.507185717687629,0.458159775944101,0.26225560973504,-0.599484764397933,-0.852197888776853,1.51501968949394,0.332340548469395,-0.801694379285871
"KI",-0.138833745147312,0.235216855294659,0.126583183447262,0.260062730837995,0.309055185997801,0.386770081444865,-0.754259631542611,0.40116152155092,0.865077879929754,0.967497364441624,-0.317974354305842,-0.46749269931041,2.33426927615972,-1.26330479467158,-0.141410070123175,0.104683589731162,0.577225087865678,1.64091985895967,0.002800869543686,1.10619797295557,-1.06059788333542
"LE",0.915788212762434,1.57205222815612,-3.5216346200079,-6.4421041159339,2.74606503701915,7.08882622460236,9.29820614026489,4.75201703551095,-5.89557837997178,6.2720338846781,0.453569699839066,1.98826906166942,2.09252353996252,-1.40084981199938,2.40154987561145,-1.14346738952879,0.288766592082162,-0.688556787086485,-1.66544153616351,-1.36031310619416,0.307101325494292
"OPENK",-0.0374924678755011,-0.00366551951688424,-0.0313720088936476,0.365953510325235,0.127062691889382,-0.0979154052081897,-0.579441838700825,-0.199435376585381,0.0805679754749161,0.137311799592118,0.0506275629584098,0.501922190050451,0.289391156582889,-0.379367780034685,0.756281179747961,-1.06329686118921,-0.0869983600393322,-0.510478694430125,-0.35513781079132,-0.577187632008947,0.0348220004812105
"POP",-0.902899989220055,-3.42349168320499,0.484919279695864,5.62486389838986,-5.22810861687682,-4.93251082932179,-2.5832848241991,-7.69405941079893,4.79281273749663,-6.25341887354439,-0.177346444092034,2.82779618714482,2.34016110888666,0.834613923432694,-1.24599322718686,-1.35571297116054,0.647143310339101,-0.441252358416026,0.848249554764318,1.72773200971749,0.0369008946003627
"RGDPCH",18.3904810389846,10.7460614900656,-11.9671590996872,22.6417836396218,37.5160098487925,34.3871191260695,-14.3155583187989,-53.6290991507795,-10.5164375103844,-18.024405744313,17.4627132537532,17.3988413045774,12.2681095137463,-27.894514324921,-177.771303026926,-54.8010508005422,-183.230806252796,4.89466169791641,144.345800876671,-39.9450496131493,200.930892598217
"RGDPL",-20.0356555599602,-11.8658890283739,18.0967409959659,-28.7489923785024,-47.6432968001269,-41.1757346299568,16.8870762853638,61.005391441808,16.9914416179469,24.0669459548041,-12.9603230737824,-11.501560939615,-3.1227605092916,22.9328448651493,170.61538664899,54.8872917992829,177.613502552228,0.213498183366877,-133.040143762028,26.7614492079552,-225.088316558445
"RGDPL2",1.82802688826862,2.15636362867891,-6.83691125790959,6.63052448574411,11.6785414794033,8.68216468821646,-4.02603074720762,-7.04906516256609,-4.28388039332319,-3.85322777702449,-4.91921827595751,-7.0057935924417,-7.34638738958153,0.585219598153733,2.2890739846821,-0.413263385485463,5.92590804516413,-2.26941800003378,-9.76603264042418,16.8180651934536,19.9297593997289
"XRAT",0.00170660071599772,0.00274647476330447,0.333388302366538,0.25498314728709,0.217530488535518,-0.0878966473591573,0.0199196247032448,0.481018539093238,-0.183822326792935,-0.185587033671971,-0.0309847550299866,-0.30913341261876,-0.507533750474477,0.614918701617865,-0.0212467992874714,-0.580823106045083,-0.654659490837899,0.0253092556135401,0.0432269065994185,0.118587601075761,-0.243765603475715
"BCAperRGDPL",-0.589547004124772,1.24834459630668,-2.60871429593766,-0.755711376511937,-1.8469129603566,2.77211686660049,0.66038397286772,0.964873287684457,7.76914291303382,-1.30231950401719,1.0432452203461,0.292180273873346,1.26151610701954,0.872462413829896,0.3644596472787,-0.440776772573079,0.699672122510389,0.00520513102763104,-0.335792066356032,0.0084389488623399,0.365819573232613
"KCxRGDPL",-0.307233026114314,-0.945890137991577,1.08158984764985,-0.2690411868948,-1.56409236944917,-1.68489304377336,-0.166523814086794,0.00644204305085688,-0.781976260097444,0.00235180663509479,0.864855348593766,2.05133164863125,0.69425539082816,1.16038164655165,5.0146662014893,0.231150672120036,-1.60757278757061,-1.46729629737699,1.22242782650306,-1.32923198973163,1.3075299998848
"KGxRGDPL",-0.139548179774956,0.075069222479665,0.24713097446594,-0.486027912161597,-0.574658460109359,-0.405674267309643,1.1765988598687,0.544095034037695,-0.015306868314255,-1.12652182895234,-0.991401495850548,-0.644577456631818,1.1950133480604,-0.358755230959353,-1.2057290023362,-0.297517399333989,0.639114734709157,0.281031125259322,-1.96775608425244,-0.125205178193826,0.911691054406755
"KIxRGDPL",0.205968463455142,-0.230104547846104,-0.552297828508828,0.0637259643888352,0.298955834692115,0.136675469418925,0.848293959059759,-0.718233500047939,-1.35437401631642,-1.09568168661248,0.724596252516487,0.092752693706642,-3.1565368431704,4.51051622030623,0.053582119296641,0.106121144122122,0.980364674687206,-2.27026759903337,-1.02539814184924,-1.6029014157398,2.25783096648694
"KCxRGDPLxPOP",6.57817085384048,9.92629678958504,-15.0571644895839,8.08603893079466,10.8254987347563,-22.3894341909179,26.742709553825,5.52219517200538,-9.09986588520647,-46.5246402433804,0.026176908556339,48.6393753723559,9.99083663320038,-1.34249368407319,-3.10916151641897,12.4621198738516,-2.89658577243203,0.316834722282357,-3.32608627503206,1.99600417021101,-0.820151662699081
"KGxRGDPLxPOP",-0.48736870011864,-5.69720534232048,-0.752191268468413,5.7908084135183,1.676267341504,3.72201467424068,-9.27459183873576,12.4605975218886,2.45535795284519,-2.53600564088438,-0.696528266852029,-0.340369426261983,-8.66162682038719,1.8539605347741,2.35676339503151,3.63356095976055,1.45065764146345,4.11272471009057,2.02753526421113,-0.0292723591148345,-0.0824302494176128
"KIxRGDPLxPOP",3.63161958825179,3.21695877653154,-5.45418514476863,-4.26953340139492,-1.46079746361924,-10.3130927813961,-1.16748151560005,-1.13184933109523,-2.45220576683253,-14.0301469894219,-1.87748634074439,15.5832575669901,3.62722206638027,-4.3527097930856,-2.42260614702742,2.53758192131481,-4.99363125591206,-1.491924864657,-0.37297428660568,-0.501657378886579,-1.53234146604133
"RGDPCHxPOP",-179.30712688444,-66.981146361964,-506.360582880133,94.8162221303795,-220.815735957229,-410.892705668135,405.719151203458,270.974719966417,582.705489400099,1106.56868966797,-1275.53373841291,160.095217003552,-427.905179858497,268.17633015427,361.206599949076,-121.743431888049,499.176502701886,161.345902051795,-61.040841808567,3.2487666542502,-122.220491751371
"RGDPLxPOP",146.029883689052,-32.3224454318309,665.188932567552,54.7487469806605,303.397061944328,625.691424898486,-516.883655893227,-157.219513275073,-602.690978707174,-1125.26845219457,1339.90625487233,-293.00294578165,302.613393853256,-222.228589221069,-328.689804549054,157.381688005174,-440.91664400718,-105.289134239991,79.2453098191347,26.2521229986829,149.816374247738
"RGDPL2xPOP",22.8773698237102,93.7912959962131,-134.850417411173,-158.114140935658,-89.6514345121314,-189.034292397376,88.2217117650631,-127.752769322016,29.5095211150087,80.1088061199808,-62.3686797486965,65.389493779906,115.556088815219,-41.7053312294664,-30.6205678167608,-51.3461071237114,-52.7550524550424,-57.7581087237331,-15.6964460611049,-31.4424073570384,-25.5641511017066
