"","V1","V2","V3","V4","V5","V6","V7","V8","V9","V10","V11","V12","V13"
"sig_1",-0.0881829559861248,-0.0537625022673222,-0.0449163213337992,0.166823686657611,-0.0478630204769225,0.178753324194793,-0.132202510430335,-0.035512214213958,-0.163128569220616,-0.554998282079927,0.282311630647607,0.316686221768302,-0.138708520935681
"sig_2",-0.203425898500565,-0.0856674232738055,0.165693121047838,-0.082592028982107,-0.204188159320435,-0.221011524999119,0.0410989416029108,-0.0838818867490246,-0.427509684394232,0.0903623111507568,0.119325881864798,0.131934011506909,-0.352454350626189
"sig_3",-0.0527235688715364,-0.230362262986906,-0.433698872081033,-0.126138839731494,0.0785960245216881,0.471210453233165,-0.00908364295561803,0.294171374302732,0.0536374283500163,0.251712136780001,-0.0405989406262684,0.351163582119506,0.0648345485312295
"sig_4",0.140053560264027,-0.154332830181062,-0.0169974216512532,0.280036528763838,-0.499810528586661,-0.620851526448245,-0.0973988198168069,0.18086378820632,0.0318162195061084,-0.131990818226309,-0.578622389727906,-0.0106271581097639,0.112301557070444
"sig_5",-0.0984902483816751,-0.0157269607044582,-0.0512036202928745,0.402111592130163,-0.0872973862221658,0.191289013993501,0.0942504437951563,0.0766883843435151,-0.0403478908267138,0.306641421979235,-0.0271847532292265,0.132109241266658,-0.379361977341851
"sig_6",0.0459980318973035,-0.331440375010616,0.100034484957076,-0.200577896953373,0.35381266721026,0.0124600672323929,-0.299744398074934,-0.489896357597388,-0.308293922291385,0.42037322294889,-0.184137656355206,-0.0319581383326607,-0.363381696162256
"sig_7",-0.0499457062504787,-0.395770316377974,0.0445858521004909,-0.54859616099224,-0.244331434867779,0.0625159507429582,-0.159503799355036,0.0652339871957557,0.0267654185159537,-0.19386306940717,0.179189006448499,-0.541706065003272,0.620548942968731
"sig_8",-0.208871899120063,-0.0482073922184137,-0.303604689379029,-0.180048559450318,0.51506835577643,-0.482499918757368,-0.0679469321653221,0.641210816916676,0.621515745231719,-0.268156911531707,0.0105648094360343,0.455960473706819,-0.178184726246013
"sig_9",-0.0709764892988492,0.15028830028493,-0.59438993580374,-0.172467670583334,-0.166263353145984,-0.0362314574597118,-0.144029404095881,0.0986051019967824,0.0103119254831738,0.385848619420384,-0.0885234536013612,-0.336243526671371,0.174362559086898
"sig_10",-0.0899638289418677,-0.13691183888672,0.0345099319545669,0.236597558536328,-0.474994721024654,-0.344737842197199,-0.25620983849738,0.109251420235186,-0.212180932948793,-0.0233844651473773,0.375555567220856,0.172399440589561,-0.208245249771919
"sig_11",0.00814515518729441,0.00687346671141072,0.174558153746672,-0.0788703016502728,0.118142785467038,0.733571511764003,-0.486666829178479,0.163303178177017,0.0162621675853512,0.14310884173172,-0.144389756711893,-0.0989575548130555,-0.0930528486032734
"sig_12",-0.0654324745527709,-0.13744253226457,0.144556347926434,-0.186604764306813,-0.479755124656133,0.0115781220537362,-0.0185155686364603,-0.229927682996455,0.592693165059002,-0.0836705462612214,0.209453012775317,-0.507209930772448,-0.434790431243045
"sig_13",-0.24736494581196,0.0451187465386828,0.0621179632099209,0.0350382767715845,-0.093834732614561,0.130966318645981,0.53856704714075,-0.0869155547016719,-0.15513845519695,-0.316217090709983,-0.227026962650123,-0.125578374419792,0.103727441060148
"sig_14",-0.269607249878138,-0.350465920052636,0.0414029508429723,0.201923486753956,0.579214988110298,0.260806314202394,0.524985706454038,-0.21623640069887,0.350587083506318,-0.513377002846261,0.317176587974335,-0.121206888801526,0.238945159103475
"sig_15",0.0298636884643347,-0.143323774698249,0.0834071682764821,0.0301770697914727,0.0769174340699699,-0.0858939009205843,0.128239460534889,-0.168724921038724,0.0205842131242806,0.143236351893344,0.0418161837529712,-0.0238869399785109,-0.0343873354372714
"sig_16",0.00523478825974211,0.00314616445782649,0.245315255061555,0.0524768812096366,0.128526789692482,0.000212357486885517,0.039014611376502,-0.468868984373276,0.44667180571022,0.149599405523588,0.0499133134905964,0.405346326492267,0.236485122380808
"sig_17",0.0435650596120558,0.0230652192243795,0.17343596516815,0.401165694703237,0.161300002033215,-0.374021120817186,0.218890357459963,0.796914435019029,-0.921664661627255,0.632293415024501,-0.136303208823593,0.0183105051006266,0.517707361568728
"sig_18",-0.0366810635078913,0.158158635936914,0.17271222837559,-0.0557321309039484,-0.342165549984969,0.00517279629431828,0.19147642656684,-0.0191951030977249,-0.0395644012574155,0.0827755441066549,0.0276339698448571,0.276046926063972,-0.100238294298389
"sig_19",0.00749908761796617,0.138698732168383,0.24555577344429,-0.0189960831706494,0.275608196359662,-0.125119222061387,0.13802076610097,-0.143697394952662,-0.183073154831872,-0.247702213414129,-0.29398262716067,0.196058596861265,0.0427398716695298
"sig_20",-0.00348160719299382,-0.024424443788221,0.18593701206176,-0.216414850963379,-0.22236246518072,0.0193945997767115,-0.110774284272849,0.0120382514046735,0.245928487756689,-0.291189528255922,-0.0445030236769583,-0.0638298485112473,0.0949368009614537
"sig_21",0.00335167536656676,-0.0326301418036159,-0.223867472335139,-0.342729593654867,0.250251612900067,-0.263622203282006,-0.0182887698186509,-0.292765228386834,-0.0675731092388841,-0.285477788376211,-0.433909233520097,0.212998517433484,0.486435606622287
"sig_22",-0.148689982356282,0.317782532192994,-0.696786099861203,0.0843662400632606,0.0364581490840483,0.0344486771311284,-0.0170474680403865,-0.56184930293249,-0.00123397084715019,-0.339948138218809,0.529125744120706,-0.0757242645873167,-0.282020889904941
"sig_23",-0.175605283306338,0.037815517458607,-0.371680386208095,-0.0586097867164119,-0.167262628121394,0.311715271932289,0.197683745832582,0.401134476293864,0.350252963046932,-0.179849913309644,-0.246773911682519,-0.33068175552891,-0.606185595502815
"sig_24",-0.116523463735679,0.0837977699514472,0.0294877717112597,0.383400254232391,-0.010221132831971,0.139318721456157,-0.610511818311289,-0.165849458881075,0.257972736097792,0.369309546505101,0.0675568385759071,0.290745302814666,0.016900541044797
"sig_25",0.0227699192748034,-0.177462011751457,0.0576894772638063,0.052078089422291,0.0699952735023412,-0.111176163554796,0.0782317159289944,0.389199189298708,-0.0488451006738819,0.224472358342286,0.572544409261135,-0.393428901382504,-0.163402908603273
"sig_26",-0.115090976650203,-0.0756004927957452,0.54583419897927,-0.438097155884798,0.0109880875944731,0.157935634365052,-0.181347605692211,0.266314455913592,-0.4882950828935,-0.380067986329491,0.108895804646717,0.408580280293499,0.401205863366729
"sig_27",0.0721673147087658,-0.0546800495938541,-0.021719422672579,-0.127011684578805,0.1995695158427,-0.00971903269363741,0.187630829272135,0.19792395297232,0.155901262790163,-0.0958400494537777,-0.0327362980202865,0.215397564305782,0.0050513727001338
"sig_28",-0.190889341071811,0.478499983568496,-0.226361820475866,0.789764405316137,0.211924934030225,-0.329123892852946,-0.335553737244699,-0.437907430959138,0.349066877954299,0.200205745577324,-0.663647683862365,-0.434021613985903,-0.653000399958476
"sig_29",-0.0298465599931017,0.134068126400772,0.452079829893239,-0.218072265190454,-0.659202351328217,0.460182677003875,0.133544140091171,-0.291323127411718,-0.445823322013245,0.400310283306529,0.486715040505044,0.139720229967797,0.620123997472086
